-4.504840170788487 5.023368722750926 -9.374359155144402 -3.507208764988031 7.996237682047914 -8.18762744292031 -5.766620039840306 -1.84948156588924 5.90036985904332 -5.743291629857735 
4.677943467743545 -1.6933126494744744 7.28470671647985 -9.069729174720596 -7.549381200625904 8.132519205492962 -2.2247111499997754 6.889820332740249 -8.538245797286576 4.381115334696893 
-3.9854883742065494 -2.609868533608747 7.250099619641866 6.251738143682293 2.6971853413548375 1.1774621941533525 -6.007175542932791 1.8051756236651948 -6.7861017799977725 -4.360583879799568 
-1.1081637915533766 2.390658197253926 -3.4031188416813016 8.525708816783808 -3.9443026638036636 -7.154891911615691 0.6637463971233903 6.762277079633805 -6.291112677329296 -9.872825359827804 
-6.754848569100443 -9.673487482305696 3.5285296151185928 8.719631266623352 -8.941231046050639 5.1293854765711675 3.0580800851210017 -1.1322334401914769 7.266446203598445 -1.3316074689907664 
2.2075638080657143 -1.8793037533817911 7.911069777755851 -1.331464632602496 -0.6946601024060133 -6.521231920113282 5.9350584462333 3.4529646478638925 -6.892291812236522 -1.5220436770427175 
-0.0459975990672793 -2.96557077493514 -3.499030604263612 1.2807184078733824 9.741536473425109 -3.480521637039578 2.210735255867028 2.6327721920470184 -7.8322790485650495 3.4363990774449986 
2.391433209844608 5.763967550409069 -4.864659228385843 -1.8629135358356064 2.3583382464494727 -9.379601858520552 -1.8001429598875083 6.189287715059195 -8.20770601311018 -8.891663315925381 
