-9.100603783538325 -6.9224143871511 -7.372552258122318 2.4877418136055383 8.897767908687195 -2.2747929613506934 -9.063696153870808 -3.7207026986673526 -0.9481027999419009 6.977427053705453 
-5.868771176372443 -9.990745053577099 9.395309584833672 0.9086246011701062 9.46292826623605 -1.5036032072086922 -1.8537902675190423 -1.9938351078042436 -4.74068961355545 -2.5415298328072 
5.169111226185358 -3.3186327872024286 0.4163911354195662 -8.586012146293186 -9.756662542254034 5.377930634309321 -9.312760089460808 -4.143411778188391 9.810133820856375 4.374661493297198 
2.4961716261789424 8.978032655693935 9.40033708679622 -1.7687894967800564 -6.46178843317314 1.6285559339590188 -8.3330146802963 -0.5687877298412423 7.724542905029528 -1.3952260423781562 
1.9971868264587815 9.744975909334105 -8.660173033283805 2.1183336230069116 -4.64274712265995 -5.148494823318568 9.309677073098776 -9.416809534823871 -5.77126777191909 9.876733420926438 
7.700625470220247 1.4536422073924704 6.413559978509681 -0.04921353438367809 9.981961925693374 3.3321513282078117 -3.721711180527222 1.2258697873394395 -1.5714644477782813 7.881951597161458 
5.440591561414925 2.699718164420437 2.6686526304644316 6.722282477294699 -8.31063621414398 9.981331651091516 -7.263566401029634 7.568515883106141 8.709655911413229 1.915303843666442 
-2.1539575446853294 -0.8013716463249052 8.693385418691966 0.23293716911514603 1.6406692154234361 -1.0243199177892277 1.897831966158781 -1.9857824500276418 -0.04880552082838123 0.6960678970671462 
